digraph Tree {
node [shape=box, style="filled, rounded", color="black", fontname="helvetica"] ;
edge [fontname="helvetica"] ;
0 [label=<Special Features &le; 2.0<br/>gini = 0.75<br/>samples = 4<br/>value = [1, 1, 1, 1]<br/>class = Amazon Fire TV 43" 4-Series>, fillcolor="#ffffff"] ;
1 [label=<gini = 0.0<br/>samples = 1<br/>value = [0, 0, 1, 0]<br/>class = Hisense 43A7GV>, fillcolor="#399de5"] ;
0 -> 1 [labeldistance=2.5, labelangle=45, headlabel="True"] ;
2 [label=<Price &le; 4.5<br/>gini = 0.667<br/>samples = 3<br/>value = [1, 1, 0, 1]<br/>class = Amazon Fire TV 43" 4-Series>, fillcolor="#ffffff"] ;
0 -> 2 [labeldistance=2.5, labelangle=-45, headlabel="False"] ;
3 [label=<Special Features &le; 4.0<br/>gini = 0.5<br/>samples = 2<br/>value = [1, 0, 0, 1]<br/>class = Amazon Fire TV 43" 4-Series>, fillcolor="#ffffff"] ;
2 -> 3 ;
4 [label=<gini = 0.0<br/>samples = 1<br/>value = [1, 0, 0, 0]<br/>class = Amazon Fire TV 43" 4-Series>, fillcolor="#e58139"] ;
3 -> 4 ;
5 [label=<gini = 0.0<br/>samples = 1<br/>value = [0, 0, 0, 1]<br/>class = Hisense 50A68H>, fillcolor="#d739e5"] ;
3 -> 5 ;
6 [label=<gini = 0.0<br/>samples = 1<br/>value = [0, 1, 0, 0]<br/>class = Hisense 43A60GV>, fillcolor="#47e539"] ;
2 -> 6 ;
}